<?xml version="1.0"?>
<opencv_storage>
<cascade>
  <stageType>BOOST</stageType>
  <featureType>HAAR</featureType>
  <height>24</height>
  <width>48</width>
  <stageParams>
    <boostType>GAB</boostType>
    <minHitRate>9.9500000476837158e-01</minHitRate>
    <maxFalseAlarm>5.0000000000000000e-01</maxFalseAlarm>
    <weightTrimRate>9.4999999999999996e-01</weightTrimRate>
    <maxDepth>1</maxDepth>
    <maxWeakCount>100</maxWeakCount></stageParams>
  <featureParams>
    <maxCatCount>0</maxCatCount>
    <featSize>1</featSize>
    <mode>ALL</mode></featureParams>
  <stageNum>9</stageNum>
  <stages>
    <!-- stage 0 -->
    <_>
      <maxWeakCount>2</maxWeakCount>
      <stageThreshold>-5.3740406036376953e-01</stageThreshold>
      <weakClassifiers>
        <_>
          <internalNodes>
            0 -1 67 -1.9936606287956238e-02</internalNodes>
          <leafValues>
            -9.5708155632019043e-01 8.3780938386917114e-01</leafValues></_>
        <_>
          <internalNodes>
            0 -1 59 -8.0357342958450317e-02</internalNodes>
          <leafValues>
            -9.4398432970046997e-01 4.1967746615409851e-01</leafValues></_></weakClassifiers></_>
    <!-- stage 1 -->
    <_>
      <maxWeakCount>8</maxWeakCount>
      <stageThreshold>-1.9055917263031006e+00</stageThreshold>
      <weakClassifiers>
        <_>
          <internalNodes>
            0 -1 83 -6.3092946074903011e-03</internalNodes>
          <leafValues>
            6.6489362716674805e-01 -6.2947934865951538e-01</leafValues></_>
        <_>
          <internalNodes>
            0 -1 39 -6.1304491013288498e-02</internalNodes>
          <leafValues>
            6.4636838436126709e-01 -4.5851287245750427e-01</leafValues></_>
        <_>
          <internalNodes>
            0 -1 69 -2.5273489952087402e-01</internalNodes>
          <leafValues>
            -7.3427546024322510e-01 4.0861803293228149e-01</leafValues></_>
        <_>
          <internalNodes>
            0 -1 8 -5.4227928631007671e-03</internalNodes>
          <leafValues>
            5.4148066043853760e-01 -3.7806174159049988e-01</leafValues></_>
        <_>
          <internalNodes>
            0 -1 88 2.7115380362374708e-05</internalNodes>
          <leafValues>
            -4.9259281158447266e-01 3.1038427352905273e-01</leafValues></_>
        <_>
          <internalNodes>
            0 -1 45 4.6500466763973236e-02</internalNodes>
          <leafValues>
            -2.9763704538345337e-01 5.0971192121505737e-01</leafValues></_>
        <_>
          <internalNodes>
            0 -1 21 -1.6846051439642906e-03</internalNodes>
          <leafValues>
            3.3745110034942627e-01 -4.3876308202743530e-01</leafValues></_>
        <_>
          <internalNodes>
            0 -1 11 1.5293747186660767e-02</internalNodes>
          <leafValues>
            -1.9878885149955750e-01 6.3326179981231689e-01</leafValues></_></weakClassifiers></_>
    <!-- stage 2 -->
    <_>
      <maxWeakCount>10</maxWeakCount>
      <stageThreshold>-1.4046270847320557e+00</stageThreshold>
      <weakClassifiers>
        <_>
          <internalNodes>
            0 -1 78 -1.2297238223254681e-02</internalNodes>
          <leafValues>
            6.4419734477996826e-01 -5.9179621934890747e-01</leafValues></_>
        <_>
          <internalNodes>
            0 -1 17 -8.4203016012907028e-03</internalNodes>
          <leafValues>
            6.5049219131469727e-01 -3.0296036601066589e-01</leafValues></_>
        <_>
          <internalNodes>
            0 -1 1 -1.2205513194203377e-03</internalNodes>
          <leafValues>
            -7.5284910202026367e-01 1.9391967356204987e-01</leafValues></_>
        <_>
          <internalNodes>
            0 -1 32 1.3371892273426056e-03</internalNodes>
          <leafValues>
            -3.7418290972709656e-01 3.4712377190589905e-01</leafValues></_>
        <_>
          <internalNodes>
            0 -1 36 -8.2877159118652344e-02</internalNodes>
          <leafValues>
            5.0865584611892700e-01 -2.9949939250946045e-01</leafValues></_>
        <_>
          <internalNodes>
            0 -1 93 2.9109586030244827e-03</internalNodes>
          <leafValues>
            -1.7792469263076782e-01 6.1008971929550171e-01</leafValues></_>
        <_>
          <internalNodes>
            0 -1 65 -6.0371361905708909e-04</internalNodes>
          <leafValues>
            -7.1402627229690552e-01 1.7329925298690796e-01</leafValues></_>
        <_>
          <internalNodes>
            0 -1 10 1.0347338393330574e-02</internalNodes>
          <leafValues>
            -2.4044908583164215e-01 5.0969058275222778e-01</leafValues></_>
        <_>
          <internalNodes>
            0 -1 6 3.1772663351148367e-03</internalNodes>
          <leafValues>
            1.9477050006389618e-01 -6.0578602552413940e-01</leafValues></_>
        <_>
          <internalNodes>
            0 -1 71 1.4151290524750948e-03</internalNodes>
          <leafValues>
            1.7193244397640228e-01 -6.4451175928115845e-01</leafValues></_></weakClassifiers></_>
    <!-- stage 3 -->
    <_>
      <maxWeakCount>11</maxWeakCount>
      <stageThreshold>-1.6825219392776489e+00</stageThreshold>
      <weakClassifiers>
        <_>
          <internalNodes>
            0 -1 86 -6.3859792426228523e-03</internalNodes>
          <leafValues>
            6.3907533884048462e-01 -5.5078500509262085e-01</leafValues></_>
        <_>
          <internalNodes>
            0 -1 15 1.0273015126585960e-02</internalNodes>
          <leafValues>
            -2.4146993458271027e-01 8.0354142189025879e-01</leafValues></_>
        <_>
          <internalNodes>
            0 -1 38 -3.6294925212860107e-01</internalNodes>
          <leafValues>
            -5.3197544813156128e-01 3.6172208189964294e-01</leafValues></_>
        <_>
          <internalNodes>
            0 -1 19 -4.4442121870815754e-03</internalNodes>
          <leafValues>
            8.5361558198928833e-01 -1.6746900975704193e-01</leafValues></_>
        <_>
          <internalNodes>
            0 -1 82 6.6790934652090073e-03</internalNodes>
          <leafValues>
            -2.4309332668781281e-01 5.5726927518844604e-01</leafValues></_>
        <_>
          <internalNodes>
            0 -1 3 -7.3003992438316345e-03</internalNodes>
          <leafValues>
            -6.9883370399475098e-01 2.3012955486774445e-01</leafValues></_>
        <_>
          <internalNodes>
            0 -1 51 1.3204977149143815e-03</internalNodes>
          <leafValues>
            1.7755685746669769e-01 -6.1769104003906250e-01</leafValues></_>
        <_>
          <internalNodes>
            0 -1 22 1.3753667008131742e-03</internalNodes>
          <leafValues>
            2.0165766775608063e-01 -6.3557839393615723e-01</leafValues></_>
        <_>
          <internalNodes>
            0 -1 40 -8.0136526376008987e-03</internalNodes>
          <leafValues>
            7.0322936773300171e-01 -2.1597483754158020e-01</leafValues></_>
        <_>
          <internalNodes>
            0 -1 9 -2.9896540567278862e-02</internalNodes>
          <leafValues>
            3.1212016940116882e-01 -4.6020308136940002e-01</leafValues></_>
        <_>
          <internalNodes>
            0 -1 96 2.5694619398564100e-04</internalNodes>
          <leafValues>
            1.1398994922637939e-01 -7.0514315366744995e-01</leafValues></_></weakClassifiers></_>
    <!-- stage 4 -->
    <_>
      <maxWeakCount>12</maxWeakCount>
      <stageThreshold>-1.3942098617553711e+00</stageThreshold>
      <weakClassifiers>
        <_>
          <internalNodes>
            0 -1 95 -3.2538052182644606e-03</internalNodes>
          <leafValues>
            6.7991632223129272e-01 -4.3126070499420166e-01</leafValues></_>
        <_>
          <internalNodes>
            0 -1 46 -3.0657693743705750e-02</internalNodes>
          <leafValues>
            -4.9591481685638428e-01 4.0126696228981018e-01</leafValues></_>
        <_>
          <internalNodes>
            0 -1 16 5.7752667926251888e-03</internalNodes>
          <leafValues>
            -2.6948827505111694e-01 5.5441081523895264e-01</leafValues></_>
        <_>
          <internalNodes>
            0 -1 76 -2.5133662857115269e-03</internalNodes>
          <leafValues>
            -7.6975995302200317e-01 2.0037549734115601e-01</leafValues></_>
        <_>
          <internalNodes>
            0 -1 97 1.3136309571564198e-03</internalNodes>
          <leafValues>
            2.4065791070461273e-01 -6.8866026401519775e-01</leafValues></_>
        <_>
          <internalNodes>
            0 -1 42 -6.3772723078727722e-03</internalNodes>
          <leafValues>
            -6.1782783269882202e-01 1.9882723689079285e-01</leafValues></_>
        <_>
          <internalNodes>
            0 -1 74 4.3039596639573574e-03</internalNodes>
          <leafValues>
            -2.8156670928001404e-01 5.0366336107254028e-01</leafValues></_>
        <_>
          <internalNodes>
            0 -1 12 3.6973606795072556e-02</internalNodes>
          <leafValues>
            2.0248563587665558e-01 -5.7572215795516968e-01</leafValues></_>
        <_>
          <internalNodes>
            0 -1 7 -5.7923835702240467e-03</internalNodes>
          <leafValues>
            -6.5044909715652466e-01 1.9794139266014099e-01</leafValues></_>
        <_>
          <internalNodes>
            0 -1 20 -1.1472440510988235e-01</internalNodes>
          <leafValues>
            -7.4474835395812988e-01 1.3467504084110260e-01</leafValues></_>
        <_>
          <internalNodes>
            0 -1 89 1.0581974638625979e-03</internalNodes>
          <leafValues>
            1.5691265463829041e-01 -6.1598074436187744e-01</leafValues></_>
        <_>
          <internalNodes>
            0 -1 18 1.1769779957830906e-02</internalNodes>
          <leafValues>
            -2.3183551430702209e-01 4.6802344918251038e-01</leafValues></_></weakClassifiers></_>
    <!-- stage 5 -->
    <_>
      <maxWeakCount>9</maxWeakCount>
      <stageThreshold>-1.5371572971343994e+00</stageThreshold>
      <weakClassifiers>
        <_>
          <internalNodes>
            0 -1 33 -8.9880146086215973e-02</internalNodes>
          <leafValues>
            4.4934803247451782e-01 -7.1231764554977417e-01</leafValues></_>
        <_>
          <internalNodes>
            0 -1 23 3.5572193562984467e-02</internalNodes>
          <leafValues>
            -4.5937034487724304e-01 4.5836085081100464e-01</leafValues></_>
        <_>
          <internalNodes>
            0 -1 58 4.2537569999694824e-02</internalNodes>
          <leafValues>
            -3.1283539533615112e-01 5.2504217624664307e-01</leafValues></_>
        <_>
          <internalNodes>
            0 -1 64 7.7826750930398703e-04</internalNodes>
          <leafValues>
            -3.3020001649856567e-01 3.0394375324249268e-01</leafValues></_>
        <_>
          <internalNodes>
            0 -1 73 -3.8738343864679337e-03</internalNodes>
          <leafValues>
            1.5672056376934052e-01 -6.1016857624053955e-01</leafValues></_>
        <_>
          <internalNodes>
            0 -1 75 6.4431922510266304e-04</internalNodes>
          <leafValues>
            1.4863143861293793e-01 -6.6947740316390991e-01</leafValues></_>
        <_>
          <internalNodes>
            0 -1 31 -1.6906678676605225e-02</internalNodes>
          <leafValues>
            3.2375773787498474e-01 -3.1429058313369751e-01</leafValues></_>
        <_>
          <internalNodes>
            0 -1 49 2.4433374404907227e-02</internalNodes>
          <leafValues>
            1.3875089585781097e-01 -7.6429367065429688e-01</leafValues></_>
        <_>
          <internalNodes>
            0 -1 57 -8.6540505290031433e-03</internalNodes>
          <leafValues>
            -5.5171537399291992e-01 1.4775386452674866e-01</leafValues></_></weakClassifiers></_>
    <!-- stage 6 -->
    <_>
      <maxWeakCount>15</maxWeakCount>
      <stageThreshold>-1.5576111078262329e+00</stageThreshold>
      <weakClassifiers>
        <_>
          <internalNodes>
            0 -1 24 2.1631760895252228e-01</internalNodes>
          <leafValues>
            -5.7221204042434692e-01 4.0706425905227661e-01</leafValues></_>
        <_>
          <internalNodes>
            0 -1 47 1.5689289197325706e-02</internalNodes>
          <leafValues>
            -3.2036605477333069e-01 5.4326993227005005e-01</leafValues></_>
        <_>
          <internalNodes>
            0 -1 13 -9.4615225680172443e-04</internalNodes>
          <leafValues>
            3.9673525094985962e-01 -3.2137215137481689e-01</leafValues></_>
        <_>
          <internalNodes>
            0 -1 87 8.2849515601992607e-03</internalNodes>
          <leafValues>
            -4.7268447279930115e-01 2.0480968058109283e-01</leafValues></_>
        <_>
          <internalNodes>
            0 -1 70 -5.9554371982812881e-03</internalNodes>
          <leafValues>
            -6.1034435033798218e-01 2.4641309678554535e-01</leafValues></_>
        <_>
          <internalNodes>
            0 -1 88 1.3635566574521363e-04</internalNodes>
          <leafValues>
            -4.4918426871299744e-01 2.1210309863090515e-01</leafValues></_>
        <_>
          <internalNodes>
            0 -1 54 -2.5404643267393112e-02</internalNodes>
          <leafValues>
            5.9111791849136353e-01 -1.7250876128673553e-01</leafValues></_>
        <_>
          <internalNodes>
            0 -1 25 4.9730530008673668e-04</internalNodes>
          <leafValues>
            -3.8442146778106689e-01 2.4750266969203949e-01</leafValues></_>
        <_>
          <internalNodes>
            0 -1 37 -7.2710163658484817e-04</internalNodes>
          <leafValues>
            -7.1087592840194702e-01 1.4388974010944366e-01</leafValues></_>
        <_>
          <internalNodes>
            0 -1 55 -7.8385211527347565e-03</internalNodes>
          <leafValues>
            6.4851808547973633e-01 -1.5106648206710815e-01</leafValues></_>
        <_>
          <internalNodes>
            0 -1 92 9.8804151639342308e-04</internalNodes>
          <leafValues>
            1.1673606932163239e-01 -8.2286715507507324e-01</leafValues></_>
        <_>
          <internalNodes>
            0 -1 26 -3.1042647606227547e-05</internalNodes>
          <leafValues>
            1.6571676731109619e-01 -4.4290634989738464e-01</leafValues></_>
        <_>
          <internalNodes>
            0 -1 81 -1.7383354716002941e-03</internalNodes>
          <leafValues>
            -7.2972238063812256e-01 1.1862521618604660e-01</leafValues></_>
        <_>
          <internalNodes>
            0 -1 84 -4.5710690319538116e-03</internalNodes>
          <leafValues>
            3.0535745620727539e-01 -2.8152859210968018e-01</leafValues></_>
        <_>
          <internalNodes>
            0 -1 27 5.5110245011746883e-04</internalNodes>
          <leafValues>
            1.1506492644548416e-01 -6.8833518028259277e-01</leafValues></_></weakClassifiers></_>
    <!-- stage 7 -->
    <_>
      <maxWeakCount>18</maxWeakCount>
      <stageThreshold>-1.5889207124710083e+00</stageThreshold>
      <weakClassifiers>
        <_>
          <internalNodes>
            0 -1 85 -3.4987903200089931e-03</internalNodes>
          <leafValues>
            2.0886375010013580e-01 -5.5745410919189453e-01</leafValues></_>
        <_>
          <internalNodes>
            0 -1 72 -1.2512383051216602e-02</internalNodes>
          <leafValues>
            -7.4497306346893311e-01 1.3566315174102783e-01</leafValues></_>
        <_>
          <internalNodes>
            0 -1 48 -8.2398049533367157e-02</internalNodes>
          <leafValues>
            4.0065690875053406e-01 -3.9479154348373413e-01</leafValues></_>
        <_>
          <internalNodes>
            0 -1 14 -4.1197147220373154e-03</internalNodes>
          <leafValues>
            2.9712793231010437e-01 -3.7553802132606506e-01</leafValues></_>
        <_>
          <internalNodes>
            0 -1 35 1.6495648771524429e-02</internalNodes>
          <leafValues>
            1.3497182726860046e-01 -6.6322070360183716e-01</leafValues></_>
        <_>
          <internalNodes>
            0 -1 62 5.4296525195240974e-04</internalNodes>
          <leafValues>
            -3.4357231855392456e-01 2.2229604423046112e-01</leafValues></_>
        <_>
          <internalNodes>
            0 -1 44 1.6392119228839874e-02</internalNodes>
          <leafValues>
            -2.7905854582786560e-01 3.2095757126808167e-01</leafValues></_>
        <_>
          <internalNodes>
            0 -1 99 1.0233479551970959e-03</internalNodes>
          <leafValues>
            9.9612839519977570e-02 -7.1130073070526123e-01</leafValues></_>
        <_>
          <internalNodes>
            0 -1 91 -5.4354622261598706e-04</internalNodes>
          <leafValues>
            -6.2633621692657471e-01 1.2199032306671143e-01</leafValues></_>
        <_>
          <internalNodes>
            0 -1 80 7.4518444307614118e-05</internalNodes>
          <leafValues>
            -3.6198809742927551e-01 2.2664836049079895e-01</leafValues></_>
        <_>
          <internalNodes>
            0 -1 41 -6.1662597581744194e-03</internalNodes>
          <leafValues>
            3.9814960956573486e-01 -2.1081386506557465e-01</leafValues></_>
        <_>
          <internalNodes>
            0 -1 90 -4.9919402226805687e-04</internalNodes>
          <leafValues>
            -6.3565641641616821e-01 1.2520559132099152e-01</leafValues></_>
        <_>
          <internalNodes>
            0 -1 5 -4.9860775470733643e-03</internalNodes>
          <leafValues>
            -5.3429305553436279e-01 1.3485705852508545e-01</leafValues></_>
        <_>
          <internalNodes>
            0 -1 30 4.2346660047769547e-03</internalNodes>
          <leafValues>
            1.1832632124423981e-01 -6.5860199928283691e-01</leafValues></_>
        <_>
          <internalNodes>
            0 -1 52 -1.4761900529265404e-03</internalNodes>
          <leafValues>
            -8.3051633834838867e-01 7.8208208084106445e-02</leafValues></_>
        <_>
          <internalNodes>
            0 -1 13 -3.0630929395556450e-03</internalNodes>
          <leafValues>
            4.7479280829429626e-01 -1.8525920808315277e-01</leafValues></_>
        <_>
          <internalNodes>
            0 -1 60 -1.7000853549689054e-03</internalNodes>
          <leafValues>
            2.0735992491245270e-01 -3.4696713089942932e-01</leafValues></_>
        <_>
          <internalNodes>
            0 -1 2 -1.4904420822858810e-03</internalNodes>
          <leafValues>
            -5.4811346530914307e-01 1.5372917056083679e-01</leafValues></_></weakClassifiers></_>
    <!-- stage 8 -->
    <_>
      <maxWeakCount>19</maxWeakCount>
      <stageThreshold>-1.5151813030242920e+00</stageThreshold>
      <weakClassifiers>
        <_>
          <internalNodes>
            0 -1 79 -5.6084925308823586e-03</internalNodes>
          <leafValues>
            1.9365079700946808e-01 -5.7111209630966187e-01</leafValues></_>
        <_>
          <internalNodes>
            0 -1 4 1.8790566828101873e-03</internalNodes>
          <leafValues>
            -3.1946772336959839e-01 3.4782263636589050e-01</leafValues></_>
        <_>
          <internalNodes>
            0 -1 34 -5.1962761208415031e-03</internalNodes>
          <leafValues>
            5.1021134853363037e-01 -1.7718932032585144e-01</leafValues></_>
        <_>
          <internalNodes>
            0 -1 43 2.9849149286746979e-02</internalNodes>
          <leafValues>
            -2.5366902351379395e-01 3.2999807596206665e-01</leafValues></_>
        <_>
          <internalNodes>
            0 -1 94 1.5863078879192472e-03</internalNodes>
          <leafValues>
            -2.6724830269813538e-01 2.9519411921501160e-01</leafValues></_>
        <_>
          <internalNodes>
            0 -1 63 -6.7980927415192127e-03</internalNodes>
          <leafValues>
            -4.7738862037658691e-01 2.2367267310619354e-01</leafValues></_>
        <_>
          <internalNodes>
            0 -1 66 -6.1714211478829384e-03</internalNodes>
          <leafValues>
            5.5894702672958374e-01 -1.6707850992679596e-01</leafValues></_>
        <_>
          <internalNodes>
            0 -1 68 3.7499940954148769e-03</internalNodes>
          <leafValues>
            -1.6873517632484436e-01 4.5699915289878845e-01</leafValues></_>
        <_>
          <internalNodes>
            0 -1 28 1.5975601272657514e-03</internalNodes>
          <leafValues>
            1.4554026722908020e-01 -6.6473305225372314e-01</leafValues></_>
        <_>
          <internalNodes>
            0 -1 3 -8.5307024419307709e-03</internalNodes>
          <leafValues>
            -7.4932634830474854e-01 5.8396764099597931e-02</leafValues></_>
        <_>
          <internalNodes>
            0 -1 98 -1.2766330037266016e-03</internalNodes>
          <leafValues>
            1.2273865938186646e-01 -5.2633589506149292e-01</leafValues></_>
        <_>
          <internalNodes>
            0 -1 77 -6.4157969318330288e-03</internalNodes>
          <leafValues>
            -6.7772090435028076e-01 1.1887048929929733e-01</leafValues></_>
        <_>
          <internalNodes>
            0 -1 56 2.9488902539014816e-02</internalNodes>
          <leafValues>
            8.9130900800228119e-02 -6.8575161695480347e-01</leafValues></_>
        <_>
          <internalNodes>
            0 -1 53 -2.8176248073577881e-02</internalNodes>
          <leafValues>
            -7.2021788358688354e-01 9.0000323951244354e-02</leafValues></_>
        <_>
          <internalNodes>
            0 -1 50 4.3366006575524807e-03</internalNodes>
          <leafValues>
            -1.8837679922580719e-01 3.7030792236328125e-01</leafValues></_>
        <_>
          <internalNodes>
            0 -1 0 -8.4777770098298788e-04</internalNodes>
          <leafValues>
            -6.5203428268432617e-01 1.0338793694972992e-01</leafValues></_>
        <_>
          <internalNodes>
            0 -1 5 7.3828864842653275e-03</internalNodes>
          <leafValues>
            6.5300077199935913e-02 -7.8984707593917847e-01</leafValues></_>
        <_>
          <internalNodes>
            0 -1 61 -2.6946077123284340e-03</internalNodes>
          <leafValues>
            1.9661206007003784e-01 -3.0900681018829346e-01</leafValues></_>
        <_>
          <internalNodes>
            0 -1 29 -5.5437167175114155e-03</internalNodes>
          <leafValues>
            -6.8957585096359253e-01 1.0258867591619492e-01</leafValues></_></weakClassifiers></_></stages>
  <features>
    <_>
      <rects>
        <_>
          0 0 1 6 -1.</_>
        <_>
          0 3 1 3 2.</_></rects>
      <tilted>0</tilted></_>
    <_>
      <rects>
        <_>
          0 0 1 8 -1.</_>
        <_>
          0 4 1 4 2.</_></rects>
      <tilted>0</tilted></_>
    <_>
      <rects>
        <_>
          0 0 1 12 -1.</_>
        <_>
          0 6 1 6 2.</_></rects>
      <tilted>0</tilted></_>
    <_>
      <rects>
        <_>
          0 0 1 24 -1.</_>
        <_>
          0 12 1 12 2.</_></rects>
      <tilted>0</tilted></_>
    <_>
      <rects>
        <_>
          0 0 4 10 -1.</_>
        <_>
          0 0 2 5 2.</_>
        <_>
          2 5 2 5 2.</_></rects>
      <tilted>0</tilted></_>
    <_>
      <rects>
        <_>
          0 0 30 1 -1.</_>
        <_>
          15 0 15 1 2.</_></rects>
      <tilted>0</tilted></_>
    <_>
      <rects>
        <_>
          0 0 36 1 -1.</_>
        <_>
          18 0 18 1 2.</_></rects>
      <tilted>0</tilted></_>
    <_>
      <rects>
        <_>
          0 2 1 22 -1.</_>
        <_>
          0 13 1 11 2.</_></rects>
      <tilted>0</tilted></_>
    <_>
      <rects>
        <_>
          0 2 4 22 -1.</_>
        <_>
          0 2 2 11 2.</_>
        <_>
          2 13 2 11 2.</_></rects>
      <tilted>0</tilted></_>
    <_>
      <rects>
        <_>
          0 2 27 22 -1.</_>
        <_>
          0 13 27 11 2.</_></rects>
      <tilted>0</tilted></_>
    <_>
      <rects>
        <_>
          0 3 8 16 -1.</_>
        <_>
          2 3 4 16 2.</_></rects>
      <tilted>0</tilted></_>
    <_>
      <rects>
        <_>
          0 3 6 18 -1.</_>
        <_>
          3 3 3 18 2.</_></rects>
      <tilted>0</tilted></_>
    <_>
      <rects>
        <_>
          0 3 25 12 -1.</_>
        <_>
          0 9 25 6 2.</_></rects>
      <tilted>0</tilted></_>
    <_>
      <rects>
        <_>
          0 4 2 14 -1.</_>
        <_>
          0 4 1 7 2.</_>
        <_>
          1 11 1 7 2.</_></rects>
      <tilted>0</tilted></_>
    <_>
      <rects>
        <_>
          0 4 4 20 -1.</_>
        <_>
          0 4 2 10 2.</_>
        <_>
          2 14 2 10 2.</_></rects>
      <tilted>0</tilted></_>
    <_>
      <rects>
        <_>
          0 4 4 13 -1.</_>
        <_>
          2 4 2 13 2.</_></rects>
      <tilted>0</tilted></_>
    <_>
      <rects>
        <_>
          0 5 4 8 -1.</_>
        <_>
          2 5 2 8 2.</_></rects>
      <tilted>0</tilted></_>
    <_>
      <rects>
        <_>
          0 6 4 18 -1.</_>
        <_>
          0 6 2 9 2.</_>
        <_>
          2 15 2 9 2.</_></rects>
      <tilted>0</tilted></_>
    <_>
      <rects>
        <_>
          0 9 12 8 -1.</_>
        <_>
          3 9 6 8 2.</_></rects>
      <tilted>0</tilted></_>
    <_>
      <rects>
        <_>
          0 10 2 14 -1.</_>
        <_>
          1 10 1 14 2.</_></rects>
      <tilted>0</tilted></_>
    <_>
      <rects>
        <_>
          0 13 46 7 -1.</_>
        <_>
          23 13 23 7 2.</_></rects>
      <tilted>0</tilted></_>
    <_>
      <rects>
        <_>
          0 21 16 3 -1.</_>
        <_>
          8 21 8 3 2.</_></rects>
      <tilted>0</tilted></_>
    <_>
      <rects>
        <_>
          1 0 12 1 -1.</_>
        <_>
          7 0 6 1 2.</_></rects>
      <tilted>0</tilted></_>
    <_>
      <rects>
        <_>
          1 0 40 8 -1.</_>
        <_>
          1 4 40 4 2.</_></rects>
      <tilted>0</tilted></_>
    <_>
      <rects>
        <_>
          1 0 47 24 -1.</_>
        <_>
          1 6 47 12 2.</_></rects>
      <tilted>0</tilted></_>
    <_>
      <rects>
        <_>
          1 22 25 2 -1.</_>
        <_>
          1 23 25 1 2.</_></rects>
      <tilted>0</tilted></_>
    <_>
      <rects>
        <_>
          1 23 12 1 -1.</_>
        <_>
          7 23 6 1 2.</_></rects>
      <tilted>0</tilted></_>
    <_>
      <rects>
        <_>
          2 0 1 2 -1.</_>
        <_>
          2 0 1 1 2.</_></rects>
      <tilted>1</tilted></_>
    <_>
      <rects>
        <_>
          2 0 10 1 -1.</_>
        <_>
          7 0 5 1 2.</_></rects>
      <tilted>0</tilted></_>
    <_>
      <rects>
        <_>
          2 23 14 1 -1.</_>
        <_>
          9 23 7 1 2.</_></rects>
      <tilted>0</tilted></_>
    <_>
      <rects>
        <_>
          3 0 32 1 -1.</_>
        <_>
          19 0 16 1 2.</_></rects>
      <tilted>0</tilted></_>
    <_>
      <rects>
        <_>
          3 3 20 17 -1.</_>
        <_>
          8 3 10 17 2.</_></rects>
      <tilted>0</tilted></_>
    <_>
      <rects>
        <_>
          3 22 40 2 -1.</_>
        <_>
          3 23 40 1 2.</_></rects>
      <tilted>0</tilted></_>
    <_>
      <rects>
        <_>
          4 12 43 12 -1.</_>
        <_>
          4 18 43 6 2.</_></rects>
      <tilted>0</tilted></_>
    <_>
      <rects>
        <_>
          4 14 6 4 -1.</_>
        <_>
          3 15 6 2 2.</_></rects>
      <tilted>1</tilted></_>
    <_>
      <rects>
        <_>
          5 16 24 8 -1.</_>
        <_>
          11 16 12 8 2.</_></rects>
      <tilted>0</tilted></_>
    <_>
      <rects>
        <_>
          5 16 33 8 -1.</_>
        <_>
          5 20 33 4 2.</_></rects>
      <tilted>0</tilted></_>
    <_>
      <rects>
        <_>
          5 21 2 1 -1.</_>
        <_>
          5 21 1 1 2.</_></rects>
      <tilted>1</tilted></_>
    <_>
      <rects>
        <_>
          8 11 39 12 -1.</_>
        <_>
          8 15 39 4 2.</_></rects>
      <tilted>0</tilted></_>
    <_>
      <rects>
        <_>
          8 15 37 8 -1.</_>
        <_>
          8 19 37 4 2.</_></rects>
      <tilted>0</tilted></_>
    <_>
      <rects>
        <_>
          9 6 8 7 -1.</_>
        <_>
          11 6 4 7 2.</_></rects>
      <tilted>0</tilted></_>
    <_>
      <rects>
        <_>
          9 7 8 9 -1.</_>
        <_>
          11 7 4 9 2.</_></rects>
      <tilted>0</tilted></_>
    <_>
      <rects>
        <_>
          10 0 3 2 -1.</_>
        <_>
          11 0 1 2 2.</_></rects>
      <tilted>0</tilted></_>
    <_>
      <rects>
        <_>
          11 1 27 12 -1.</_>
        <_>
          11 4 27 6 2.</_></rects>
      <tilted>0</tilted></_>
    <_>
      <rects>
        <_>
          12 0 21 6 -1.</_>
        <_>
          12 3 21 3 2.</_></rects>
      <tilted>0</tilted></_>
    <_>
      <rects>
        <_>
          12 0 24 16 -1.</_>
        <_>
          12 4 24 8 2.</_></rects>
      <tilted>0</tilted></_>
    <_>
      <rects>
        <_>
          12 21 24 2 -1.</_>
        <_>
          20 21 8 2 2.</_></rects>
      <tilted>0</tilted></_>
    <_>
      <rects>
        <_>
          13 0 21 8 -1.</_>
        <_>
          13 2 21 4 2.</_></rects>
      <tilted>0</tilted></_>
    <_>
      <rects>
        <_>
          13 14 33 10 -1.</_>
        <_>
          13 19 33 5 2.</_></rects>
      <tilted>0</tilted></_>
    <_>
      <rects>
        <_>
          14 15 16 8 -1.</_>
        <_>
          22 15 8 8 2.</_></rects>
      <tilted>0</tilted></_>
    <_>
      <rects>
        <_>
          15 6 16 2 -1.</_>
        <_>
          19 6 8 2 2.</_></rects>
      <tilted>0</tilted></_>
    <_>
      <rects>
        <_>
          16 0 20 1 -1.</_>
        <_>
          26 0 10 1 2.</_></rects>
      <tilted>0</tilted></_>
    <_>
      <rects>
        <_>
          16 17 4 4 -1.</_>
        <_>
          17 17 2 4 2.</_></rects>
      <tilted>0</tilted></_>
    <_>
      <rects>
        <_>
          16 17 20 7 -1.</_>
        <_>
          26 17 10 7 2.</_></rects>
      <tilted>0</tilted></_>
    <_>
      <rects>
        <_>
          17 9 19 8 -1.</_>
        <_>
          17 11 19 4 2.</_></rects>
      <tilted>0</tilted></_>
    <_>
      <rects>
        <_>
          17 14 11 4 -1.</_>
        <_>
          17 15 11 2 2.</_></rects>
      <tilted>0</tilted></_>
    <_>
      <rects>
        <_>
          17 15 20 9 -1.</_>
        <_>
          27 15 10 9 2.</_></rects>
      <tilted>0</tilted></_>
    <_>
      <rects>
        <_>
          17 16 20 7 -1.</_>
        <_>
          22 16 10 7 2.</_></rects>
      <tilted>0</tilted></_>
    <_>
      <rects>
        <_>
          18 2 30 12 -1.</_>
        <_>
          18 2 15 6 2.</_>
        <_>
          33 8 15 6 2.</_></rects>
      <tilted>0</tilted></_>
    <_>
      <rects>
        <_>
          18 21 30 2 -1.</_>
        <_>
          28 21 10 2 2.</_></rects>
      <tilted>0</tilted></_>
    <_>
      <rects>
        <_>
          22 0 26 4 -1.</_>
        <_>
          35 0 13 4 2.</_></rects>
      <tilted>0</tilted></_>
    <_>
      <rects>
        <_>
          24 0 24 4 -1.</_>
        <_>
          36 0 12 4 2.</_></rects>
      <tilted>0</tilted></_>
    <_>
      <rects>
        <_>
          24 22 12 2 -1.</_>
        <_>
          24 23 12 1 2.</_></rects>
      <tilted>0</tilted></_>
    <_>
      <rects>
        <_>
          26 22 9 1 -1.</_>
        <_>
          29 22 3 1 2.</_></rects>
      <tilted>0</tilted></_>
    <_>
      <rects>
        <_>
          27 22 13 2 -1.</_>
        <_>
          27 23 13 1 2.</_></rects>
      <tilted>0</tilted></_>
    <_>
      <rects>
        <_>
          28 17 4 3 -1.</_>
        <_>
          29 17 2 3 2.</_></rects>
      <tilted>0</tilted></_>
    <_>
      <rects>
        <_>
          29 15 10 4 -1.</_>
        <_>
          29 16 10 2 2.</_></rects>
      <tilted>0</tilted></_>
    <_>
      <rects>
        <_>
          29 21 6 3 -1.</_>
        <_>
          31 21 2 3 2.</_></rects>
      <tilted>0</tilted></_>
    <_>
      <rects>
        <_>
          32 15 7 4 -1.</_>
        <_>
          32 16 7 2 2.</_></rects>
      <tilted>0</tilted></_>
    <_>
      <rects>
        <_>
          35 0 12 24 -1.</_>
        <_>
          35 8 12 8 2.</_></rects>
      <tilted>0</tilted></_>
    <_>
      <rects>
        <_>
          36 0 6 1 -1.</_>
        <_>
          38 0 2 1 2.</_></rects>
      <tilted>0</tilted></_>
    <_>
      <rects>
        <_>
          37 0 10 2 -1.</_>
        <_>
          42 0 5 2 2.</_></rects>
      <tilted>0</tilted></_>
    <_>
      <rects>
        <_>
          38 0 6 2 -1.</_>
        <_>
          40 0 2 2 2.</_></rects>
      <tilted>0</tilted></_>
    <_>
      <rects>
        <_>
          38 1 9 1 -1.</_>
        <_>
          41 1 3 1 2.</_></rects>
      <tilted>0</tilted></_>
    <_>
      <rects>
        <_>
          39 10 8 5 -1.</_>
        <_>
          41 10 4 5 2.</_></rects>
      <tilted>0</tilted></_>
    <_>
      <rects>
        <_>
          42 0 4 2 -1.</_>
        <_>
          44 0 2 2 2.</_></rects>
      <tilted>0</tilted></_>
    <_>
      <rects>
        <_>
          42 0 6 6 -1.</_>
        <_>
          42 3 6 3 2.</_></rects>
      <tilted>0</tilted></_>
    <_>
      <rects>
        <_>
          42 1 3 2 -1.</_>
        <_>
          43 1 1 2 2.</_></rects>
      <tilted>0</tilted></_>
    <_>
      <rects>
        <_>
          42 6 6 12 -1.</_>
        <_>
          45 6 3 12 2.</_></rects>
      <tilted>0</tilted></_>
    <_>
      <rects>
        <_>
          42 9 6 6 -1.</_>
        <_>
          45 9 3 6 2.</_></rects>
      <tilted>0</tilted></_>
    <_>
      <rects>
        <_>
          43 22 4 2 -1.</_>
        <_>
          45 22 2 2 2.</_></rects>
      <tilted>0</tilted></_>
    <_>
      <rects>
        <_>
          44 0 3 3 -1.</_>
        <_>
          45 1 1 3 3.</_></rects>
      <tilted>1</tilted></_>
    <_>
      <rects>
        <_>
          44 4 4 20 -1.</_>
        <_>
          44 4 2 10 2.</_>
        <_>
          46 14 2 10 2.</_></rects>
      <tilted>0</tilted></_>
    <_>
      <rects>
        <_>
          44 4 4 14 -1.</_>
        <_>
          46 4 2 14 2.</_></rects>
      <tilted>0</tilted></_>
    <_>
      <rects>
        <_>
          44 7 4 12 -1.</_>
        <_>
          46 7 2 12 2.</_></rects>
      <tilted>0</tilted></_>
    <_>
      <rects>
        <_>
          44 9 4 6 -1.</_>
        <_>
          46 9 2 6 2.</_></rects>
      <tilted>0</tilted></_>
    <_>
      <rects>
        <_>
          44 9 4 8 -1.</_>
        <_>
          46 9 2 8 2.</_></rects>
      <tilted>0</tilted></_>
    <_>
      <rects>
        <_>
          44 10 2 12 -1.</_>
        <_>
          44 10 2 6 2.</_></rects>
      <tilted>1</tilted></_>
    <_>
      <rects>
        <_>
          44 21 4 3 -1.</_>
        <_>
          46 21 2 3 2.</_></rects>
      <tilted>0</tilted></_>
    <_>
      <rects>
        <_>
          45 0 2 4 -1.</_>
        <_>
          45 2 2 2 2.</_></rects>
      <tilted>0</tilted></_>
    <_>
      <rects>
        <_>
          45 1 2 1 -1.</_>
        <_>
          45 1 1 1 2.</_></rects>
      <tilted>1</tilted></_>
    <_>
      <rects>
        <_>
          45 1 3 1 -1.</_>
        <_>
          46 2 1 1 3.</_></rects>
      <tilted>1</tilted></_>
    <_>
      <rects>
        <_>
          46 0 2 6 -1.</_>
        <_>
          47 0 1 6 2.</_></rects>
      <tilted>0</tilted></_>
    <_>
      <rects>
        <_>
          46 5 2 18 -1.</_>
        <_>
          46 5 1 9 2.</_>
        <_>
          47 14 1 9 2.</_></rects>
      <tilted>0</tilted></_>
    <_>
      <rects>
        <_>
          46 8 2 16 -1.</_>
        <_>
          46 8 1 8 2.</_>
        <_>
          47 16 1 8 2.</_></rects>
      <tilted>0</tilted></_>
    <_>
      <rects>
        <_>
          46 8 2 9 -1.</_>
        <_>
          47 8 1 9 2.</_></rects>
      <tilted>0</tilted></_>
    <_>
      <rects>
        <_>
          47 0 1 2 -1.</_>
        <_>
          47 1 1 1 2.</_></rects>
      <tilted>0</tilted></_>
    <_>
      <rects>
        <_>
          47 0 1 8 -1.</_>
        <_>
          47 4 1 4 2.</_></rects>
      <tilted>0</tilted></_>
    <_>
      <rects>
        <_>
          47 1 1 3 -1.</_>
        <_>
          47 2 1 1 2.</_></rects>
      <tilted>0</tilted></_>
    <_>
      <rects>
        <_>
          47 18 1 6 -1.</_>
        <_>
          47 21 1 3 2.</_></rects>
      <tilted>0</tilted></_></features></cascade>
</opencv_storage>
